%YAML:1.0
my_svm: !!opencv-ml-svm
   svm_type: C_SVC
   kernel: { type:LINEAR }
   C: 1.0000000000000001e-001
   term_criteria: { epsilon:9.9999997764825821e-003, iterations:1000 }
   var_all: 384
   var_count: 384
   class_count: 2
   class_labels: !!opencv-matrix
      rows: 1
      cols: 2
      dt: i
      data: [ -1, 1 ]
   sv_total: 1
   support_vectors:
      - [ -3.40863913e-002, -2.14745514e-002, -1.76586618e-003,
          1.86214261e-002, -2.27602981e-002, -1.09597470e-003,
          2.52291262e-002, -1.06812110e-002, 9.87407099e-003,
          -2.19307207e-002, 6.16193982e-003, -2.98939347e-002,
          1.86935700e-002, -5.93852997e-002, -3.28443721e-002,
          -9.82170645e-003, -1.65087394e-002, 4.72750748e-003,
          -4.73277308e-002, 2.61492934e-002, 7.97841605e-003,
          1.61366295e-002, 8.27482566e-002, 6.22158386e-002,
          -3.94309498e-003, -3.01223062e-002, -3.61736827e-002,
          -8.25775191e-002, -6.12036139e-002, 4.40120921e-002,
          4.24014684e-003, -2.20578332e-002, 1.48307839e-002,
          1.82408374e-002, 1.13021163e-002, 1.47262374e-002,
          1.87047645e-002, 2.32305992e-002, 1.18079465e-002,
          1.94044709e-002, 1.85686033e-002, 7.36533478e-002,
          -1.20490938e-002, -8.55436735e-003, 1.49996942e-002, 0., 0.,
          0., 0., 0., 0., 0., 0., 0., 0., 0., 0., 0., 0., 0., 0., 0., 0.,
          0., 8.99262633e-003, 1.17887333e-002, -7.67201139e-003,
          8.87707400e-004, 3.26874666e-003, -9.85163730e-003,
          -3.56468521e-002, -8.25266540e-003, -3.04982625e-002,
          -5.92611656e-002, 5.34043740e-003, -6.06925189e-002,
          2.69513354e-002, -8.36529210e-002, 3.37665789e-002,
          8.95525154e-004, -4.25810739e-002, -8.29942804e-003,
          7.15045084e-004, 6.50110841e-002, -1.77603886e-002,
          1.41146919e-002, 5.15320599e-002, -4.81460616e-003,
          -6.80464283e-002, -4.74374741e-003, -1.73247885e-002,
          4.89511378e-002, 4.40642945e-002, 4.45443466e-002,
          -9.05240886e-003, 1.56276263e-002, 1.90400910e-002,
          2.63689477e-002, 4.08174424e-003, 8.33311118e-003,
          6.67221565e-003, 4.39689402e-003, 8.45749583e-003,
          7.15673808e-003, 9.97010246e-003, 2.51244344e-002,
          -6.91951625e-003, 2.87081668e-004, -2.12709438e-002, 0., 0.,
          0., 0., 0., 0., 0., 0., 0., 0., 0., 0., 0., 0., 0., 0., 0., 0.,
          0., -2.59925798e-002, 1.53693045e-002, -3.28168646e-002,
          2.02974752e-002, 1.18211443e-002, 7.75603652e-002,
          -2.29157861e-002, -2.26511415e-002, -4.98860665e-002,
          -1.46814566e-002, 3.57468463e-002, 2.80528096e-003,
          -1.08356765e-002, 3.89076881e-002, 1.72586069e-002,
          2.09680889e-002, -4.26607616e-002, -2.59567834e-002,
          -2.32133437e-002, 2.01902222e-002, 7.82835111e-003,
          -2.73949336e-002, -3.06497961e-002, -1.43267214e-002,
          1.20791066e-002, 6.16761157e-003, 1.12171983e-002,
          -2.05652528e-002, -1.09875910e-002, -5.56198356e-004,
          -4.49687429e-002, -1.95291229e-002, -2.98105013e-002,
          3.41988960e-003, 7.32296426e-003, 1.39774401e-002,
          1.59869678e-002, 5.78731997e-003, -1.53521542e-002,
          -1.04139103e-002, 1.44441240e-003, 2.25852281e-002,
          2.55933702e-002, 3.31516080e-002, 1.93982925e-002,
          2.41500903e-002, 2.60511898e-002, 1.08823907e-002,
          9.48406197e-003, -1.15736024e-002, -1.42815653e-002,
          -1.54323559e-002, -1.65814012e-002, -2.18641572e-002,
          -1.31841544e-002, -5.78580145e-003, -8.47258343e-005,
          8.79193249e-004, 4.83223703e-003, 6.88346382e-003,
          1.18016237e-002, 1.64786726e-002, 2.12954078e-002,
          1.53300576e-002, -9.47899185e-003, -3.53435837e-002,
          -2.65547298e-002, 1.97839979e-002, -4.75684647e-003,
          -1.70282014e-002, -9.04926937e-003, -1.51803792e-002,
          -2.53079692e-004, 2.45843269e-002, 1.89141110e-002,
          3.10087111e-003, 5.89811301e-004, -4.01734561e-002,
          1.40639143e-002, 2.29821522e-002, 2.73720287e-002,
          8.95298366e-003, -2.00336576e-002, -3.86173674e-003,
          5.53640828e-004, -1.36780005e-003, 1.52727887e-002,
          3.14022824e-002, -1.16069184e-003, 1.67260729e-002,
          3.90257388e-002, 1.45303495e-002, -5.90013573e-003,
          -5.09682391e-003, -1.78025651e-003, 1.89567669e-004,
          -3.15985717e-002, -1.14194779e-002, 1.73820672e-003,
          -6.30183052e-003, -1.19529646e-002, -9.61320102e-003,
          -1.21131726e-002, -3.75855714e-003, -2.26791147e-002,
          -3.06688454e-002, -2.72764564e-002, -2.01346315e-002,
          -2.18301080e-002, -2.57321615e-002, -1.93489417e-002,
          -1.70547646e-002, -1.11134071e-002, -1.25803081e-002,
          1.35535868e-002, 2.08795927e-002, 1.21427495e-002,
          1.30361635e-002, 1.07418280e-002, 1.13427127e-002,
          1.69543345e-002, 2.36422699e-002, 1.79143138e-002,
          1.67456884e-002, 1.87916402e-002, 2.30808221e-002,
          1.89722534e-002, 1.46149481e-002, -7.25263171e-003,
          -1.60300843e-002, -2.43550204e-002, 1.74500719e-002,
          -2.26314459e-003, -9.01221298e-003, -3.19128223e-002,
          -2.07598526e-002, -1.68385915e-002, -1.12904226e-002,
          1.81644969e-002, 6.30823709e-003, 8.19255784e-003,
          -1.65552795e-002, -5.49139036e-003, -1.78934250e-003,
          -4.05629538e-003, 6.71458757e-003, -3.10577056e-003,
          -9.86471190e-004, -1.47099476e-002, -2.03345735e-002,
          -1.33280372e-002, -1.91066880e-002, 3.82837560e-003,
          -5.71795506e-003, -4.96069854e-003, -3.28205787e-002,
          2.55740210e-002, -9.45938565e-003, 1.86228584e-002,
          -6.41544769e-003, -1.11555494e-002, -3.67490798e-002,
          -2.90508941e-002, 2.35498250e-002, 4.61614691e-003,
          -1.65329687e-002, -1.71053428e-002, 1.87439509e-002,
          5.04111871e-002, 2.54949536e-002, 1.93806291e-002,
          3.04450560e-002, -1.67590287e-002, 9.36489645e-003,
          1.90359186e-002, -6.11437485e-003, 4.91573699e-002,
          4.59343903e-002, 2.44917977e-003, 2.24599373e-002,
          1.56797525e-002, 8.48389044e-003, 6.10466627e-003,
          -4.46145423e-004, 7.03136949e-003, -5.26636243e-002,
          3.08072176e-002, 5.02929054e-002, -1.80331338e-002,
          8.97414889e-003, -3.90779860e-002, -1.10322535e-002,
          4.69024479e-002, 2.97692716e-002, 6.80936826e-003,
          -4.87872958e-003, 1.54069364e-002, 7.79895065e-003,
          -1.05480989e-003, 1.01367664e-002, -4.29879082e-003,
          8.51420965e-003, 1.73396617e-002, 3.04252282e-002,
          2.43516862e-002, -1.88925676e-002, 2.61777472e-002,
          9.43595171e-003, -1.87082402e-002, -5.86626492e-002,
          -5.76479500e-003, 3.97133129e-003, -8.45377799e-003,
          -5.94695378e-003, -1.25891836e-002, -7.67540606e-003,
          -2.20821463e-002, -3.49831842e-002, -2.60434356e-002,
          1.80905759e-002, 2.33377237e-002, -2.18664482e-003,
          -3.88521166e-003, -8.38042237e-003, 4.90307575e-003,
          -5.37283998e-003, -2.40354389e-002, -2.03966629e-002,
          -2.81926524e-002, -1.54126342e-002, -2.87252478e-004,
          2.15867739e-002, 5.42421872e-003, -1.32119153e-002,
          -5.41617069e-003, 1.90424025e-002, 5.62084690e-002,
          3.71434167e-002, -5.45675401e-003, -3.34987380e-002,
          -2.74494309e-002, -4.05301386e-003, 1.38336867e-002,
          3.35319806e-003, -8.66460335e-003, -6.61122147e-003,
          2.10381318e-002, 2.23314483e-002, 6.63201092e-003,
          -3.68289620e-004, -2.03902423e-002, -1.96257047e-003,
          -2.71310490e-002, -2.14780625e-002, 2.72981008e-003,
          2.11817659e-002 ]
   decision_functions:
      -
         sv_count: 1
         rho: -2.7703379543076174e+000
         alpha: [ 1. ]
         index: [ 0 ]
